FANN_FLO_2.1
num_layers=3
learning_rate=0.700000
connection_rate=1.000000
network_type=0
learning_momentum=0.000000
training_algorithm=2
train_error_function=1
train_stop_function=0
cascade_output_change_fraction=0.010000
quickprop_decay=-0.000100
quickprop_mu=1.750000
rprop_increase_factor=1.200000
rprop_decrease_factor=0.500000
rprop_delta_min=0.000000
rprop_delta_max=50.000000
rprop_delta_zero=0.100000
cascade_output_stagnation_epochs=12
cascade_candidate_change_fraction=0.010000
cascade_candidate_stagnation_epochs=12
cascade_max_out_epochs=150
cascade_min_out_epochs=50
cascade_max_cand_epochs=150
cascade_min_cand_epochs=50
cascade_num_candidate_groups=2
bit_fail_limit=3.49999994039535520000e-001
cascade_candidate_limit=1.00000000000000000000e+003
cascade_weight_multiplier=4.00000005960464480000e-001
cascade_activation_functions_count=10
cascade_activation_functions=3 5 7 8 10 11 14 15 16 17 
cascade_activation_steepnesses_count=4
cascade_activation_steepnesses=2.50000000000000000000e-001 5.00000000000000000000e-001 7.50000000000000000000e-001 1.00000000000000000000e+000 
layer_sizes=21 41 2 
scale_included=0
neurons (num_inputs, activation_function, activation_steepness)=(0, 0, 0.00000000000000000000e+000) (0, 0, 0.00000000000000000000e+000) (0, 0, 0.00000000000000000000e+000) (0, 0, 0.00000000000000000000e+000) (0, 0, 0.00000000000000000000e+000) (0, 0, 0.00000000000000000000e+000) (0, 0, 0.00000000000000000000e+000) (0, 0, 0.00000000000000000000e+000) (0, 0, 0.00000000000000000000e+000) (0, 0, 0.00000000000000000000e+000) (0, 0, 0.00000000000000000000e+000) (0, 0, 0.00000000000000000000e+000) (0, 0, 0.00000000000000000000e+000) (0, 0, 0.00000000000000000000e+000) (0, 0, 0.00000000000000000000e+000) (0, 0, 0.00000000000000000000e+000) (0, 0, 0.00000000000000000000e+000) (0, 0, 0.00000000000000000000e+000) (0, 0, 0.00000000000000000000e+000) (0, 0, 0.00000000000000000000e+000) (0, 0, 0.00000000000000000000e+000) (21, 5, 9.99999977648258210000e-003) (21, 5, 9.99999977648258210000e-003) (21, 5, 9.99999977648258210000e-003) (21, 5, 9.99999977648258210000e-003) (21, 5, 9.99999977648258210000e-003) (21, 5, 9.99999977648258210000e-003) (21, 5, 9.99999977648258210000e-003) (21, 5, 9.99999977648258210000e-003) (21, 5, 9.99999977648258210000e-003) (21, 5, 9.99999977648258210000e-003) (21, 5, 9.99999977648258210000e-003) (21, 5, 9.99999977648258210000e-003) (21, 5, 9.99999977648258210000e-003) (21, 5, 9.99999977648258210000e-003) (21, 5, 9.99999977648258210000e-003) (21, 5, 9.99999977648258210000e-003) (21, 5, 9.99999977648258210000e-003) (21, 5, 9.99999977648258210000e-003) (21, 5, 9.99999977648258210000e-003) (21, 5, 9.99999977648258210000e-003) (21, 5, 9.99999977648258210000e-003) (21, 5, 9.99999977648258210000e-003) (21, 5, 9.99999977648258210000e-003) (21, 5, 9.99999977648258210000e-003) (21, 5, 9.99999977648258210000e-003) (21, 5, 9.99999977648258210000e-003) (21, 5, 9.99999977648258210000e-003) (21, 5, 9.99999977648258210000e-003) (21, 5, 9.99999977648258210000e-003) (21, 5, 9.99999977648258210000e-003) (21, 5, 9.99999977648258210000e-003) (21, 5, 9.99999977648258210000e-003) (21, 5, 9.99999977648258210000e-003) (21, 5, 9.99999977648258210000e-003) (21, 5, 9.99999977648258210000e-003) (21, 5, 9.99999977648258210000e-003) (21, 5, 9.99999977648258210000e-003) (21, 5, 9.99999977648258210000e-003) (21, 5, 9.99999977648258210000e-003) (21, 5, 9.99999977648258210000e-003) (0, 0, 0.00000000000000000000e+000) (41, 5, 9.99999977648258210000e-003) (0, 0, 0.00000000000000000000e+000) 
connections (connected_to_neuron, weight)=(0, 1.50000000000000000000e+003) (1, 1.50000000000000000000e+003) (2, 1.50000000000000000000e+003) (3, 1.50000000000000000000e+003) (4, 1.50000000000000000000e+003) (5, 1.50000000000000000000e+003) (6, 1.50000000000000000000e+003) (7, 1.50000000000000000000e+003) (8, 1.50000000000000000000e+003) (9, 1.50000000000000000000e+003) (10, 1.50000000000000000000e+003) (11, 1.50000000000000000000e+003) (12, 1.50000000000000000000e+003) (13, 1.50000000000000000000e+003) (14, 1.50000000000000000000e+003) (15, 1.50000000000000000000e+003) (16, 1.50000000000000000000e+003) (17, 1.50000000000000000000e+003) (18, 1.50000000000000000000e+003) (19, 1.50000000000000000000e+003) (20, 1.50000000000000000000e+003) (0, 1.50000000000000000000e+003) (1, 1.50000000000000000000e+003) (2, 1.50000000000000000000e+003) (3, 1.50000000000000000000e+003) (4, 1.50000000000000000000e+003) (5, 1.50000000000000000000e+003) (6, 1.50000000000000000000e+003) (7, 1.50000000000000000000e+003) (8, 1.50000000000000000000e+003) (9, 1.50000000000000000000e+003) (10, 1.50000000000000000000e+003) (11, 1.50000000000000000000e+003) (12, 1.50000000000000000000e+003) (13, 1.50000000000000000000e+003) (14, 1.50000000000000000000e+003) (15, 1.50000000000000000000e+003) (16, 1.50000000000000000000e+003) (17, 1.50000000000000000000e+003) (18, 1.50000000000000000000e+003) (19, 1.50000000000000000000e+003) (20, 1.50000000000000000000e+003) (0, 1.50000000000000000000e+003) (1, 1.50000000000000000000e+003) (2, 1.50000000000000000000e+003) (3, 1.50000000000000000000e+003) (4, 1.50000000000000000000e+003) (5, 1.50000000000000000000e+003) (6, 1.50000000000000000000e+003) (7, 1.50000000000000000000e+003) (8, 1.50000000000000000000e+003) (9, 1.50000000000000000000e+003) (10, 1.50000000000000000000e+003) (11, 1.50000000000000000000e+003) (12, 1.50000000000000000000e+003) (13, 1.50000000000000000000e+003) (14, 1.50000000000000000000e+003) (15, 1.50000000000000000000e+003) (16, 1.50000000000000000000e+003) (17, 1.50000000000000000000e+003) (18, 1.50000000000000000000e+003) (19, 1.50000000000000000000e+003) (20, 1.50000000000000000000e+003) (0, 1.50000000000000000000e+003) (1, 1.50000000000000000000e+003) (2, 1.50000000000000000000e+003) (3, 1.50000000000000000000e+003) (4, 1.50000000000000000000e+003) (5, 1.50000000000000000000e+003) (6, 1.50000000000000000000e+003) (7, 1.50000000000000000000e+003) (8, 1.50000000000000000000e+003) (9, 1.50000000000000000000e+003) (10, 1.50000000000000000000e+003) (11, 1.50000000000000000000e+003) (12, 1.50000000000000000000e+003) (13, 1.50000000000000000000e+003) (14, 1.50000000000000000000e+003) (15, 1.50000000000000000000e+003) (16, 1.50000000000000000000e+003) (17, 1.50000000000000000000e+003) (18, 1.50000000000000000000e+003) (19, 1.50000000000000000000e+003) (20, 1.50000000000000000000e+003) (0, 1.50000000000000000000e+003) (1, 1.50000000000000000000e+003) (2, 1.50000000000000000000e+003) (3, 1.50000000000000000000e+003) (4, 1.50000000000000000000e+003) (5, 1.50000000000000000000e+003) (6, 1.50000000000000000000e+003) (7, 1.50000000000000000000e+003) (8, 1.50000000000000000000e+003) (9, 1.50000000000000000000e+003) (10, 1.50000000000000000000e+003) (11, 1.50000000000000000000e+003) (12, 1.50000000000000000000e+003) (13, 1.50000000000000000000e+003) (14, 1.50000000000000000000e+003) (15, 1.50000000000000000000e+003) (16, 1.50000000000000000000e+003) (17, 1.50000000000000000000e+003) (18, 1.50000000000000000000e+003) (19, 1.50000000000000000000e+003) (20, 1.50000000000000000000e+003) (0, 1.50000000000000000000e+003) (1, 1.50000000000000000000e+003) (2, 1.50000000000000000000e+003) (3, 1.50000000000000000000e+003) (4, 1.50000000000000000000e+003) (5, 1.50000000000000000000e+003) (6, 1.50000000000000000000e+003) (7, 1.50000000000000000000e+003) (8, 1.50000000000000000000e+003) (9, 1.50000000000000000000e+003) (10, 1.50000000000000000000e+003) (11, 1.50000000000000000000e+003) (12, 1.50000000000000000000e+003) (13, 1.50000000000000000000e+003) (14, 1.50000000000000000000e+003) (15, 1.50000000000000000000e+003) (16, 1.50000000000000000000e+003) (17, 1.50000000000000000000e+003) (18, 1.50000000000000000000e+003) (19, 1.50000000000000000000e+003) (20, 1.50000000000000000000e+003) (0, 1.50000000000000000000e+003) (1, 1.50000000000000000000e+003) (2, 1.50000000000000000000e+003) (3, 1.50000000000000000000e+003) (4, 1.50000000000000000000e+003) (5, 1.50000000000000000000e+003) (6, 1.50000000000000000000e+003) (7, 1.50000000000000000000e+003) (8, 1.50000000000000000000e+003) (9, 1.50000000000000000000e+003) (10, 1.50000000000000000000e+003) (11, 1.50000000000000000000e+003) (12, 1.50000000000000000000e+003) (13, 1.50000000000000000000e+003) (14, 1.50000000000000000000e+003) (15, 1.50000000000000000000e+003) (16, 1.50000000000000000000e+003) (17, 1.50000000000000000000e+003) (18, 1.50000000000000000000e+003) (19, 1.50000000000000000000e+003) (20, 1.50000000000000000000e+003) (0, 1.50000000000000000000e+003) (1, 1.50000000000000000000e+003) (2, 1.50000000000000000000e+003) (3, 1.50000000000000000000e+003) (4, 1.50000000000000000000e+003) (5, 1.50000000000000000000e+003) (6, 1.50000000000000000000e+003) (7, 1.50000000000000000000e+003) (8, 1.50000000000000000000e+003) (9, 1.50000000000000000000e+003) (10, 1.50000000000000000000e+003) (11, 1.50000000000000000000e+003) (12, 1.50000000000000000000e+003) (13, 1.50000000000000000000e+003) (14, 1.50000000000000000000e+003) (15, 1.50000000000000000000e+003) (16, 1.50000000000000000000e+003) (17, 1.50000000000000000000e+003) (18, 1.50000000000000000000e+003) (19, 1.50000000000000000000e+003) (20, 1.50000000000000000000e+003) (0, -1.50000000000000000000e+003) (1, -1.50000000000000000000e+003) (2, -1.50000000000000000000e+003) (3, -1.50000000000000000000e+003) (4, -1.50000000000000000000e+003) (5, -1.50000000000000000000e+003) (6, -1.50000000000000000000e+003) (7, -1.50000000000000000000e+003) (8, -1.50000000000000000000e+003) (9, -1.50000000000000000000e+003) (10, -1.50000000000000000000e+003) (11, -1.50000000000000000000e+003) (12, -1.50000000000000000000e+003) (13, -1.50000000000000000000e+003) (14, -1.50000000000000000000e+003) (15, -1.50000000000000000000e+003) (16, -1.50000000000000000000e+003) (17, -1.50000000000000000000e+003) (18, -1.50000000000000000000e+003) (19, -1.50000000000000000000e+003) (20, -1.50000000000000000000e+003) (0, -1.50000000000000000000e+003) (1, -1.50000000000000000000e+003) (2, -1.50000000000000000000e+003) (3, -1.50000000000000000000e+003) (4, -1.50000000000000000000e+003) (5, -1.50000000000000000000e+003) (6, -1.50000000000000000000e+003) (7, -1.50000000000000000000e+003) (8, -1.50000000000000000000e+003) (9, -1.50000000000000000000e+003) (10, -1.50000000000000000000e+003) (11, -1.50000000000000000000e+003) (12, -1.50000000000000000000e+003) (13, -1.50000000000000000000e+003) (14, -1.50000000000000000000e+003) (15, -1.50000000000000000000e+003) (16, -1.50000000000000000000e+003) (17, -1.50000000000000000000e+003) (18, -1.50000000000000000000e+003) (19, -1.50000000000000000000e+003) (20, -1.50000000000000000000e+003) (0, 1.50000000000000000000e+003) (1, 1.50000000000000000000e+003) (2, 1.50000000000000000000e+003) (3, 1.50000000000000000000e+003) (4, 1.50000000000000000000e+003) (5, 1.50000000000000000000e+003) (6, 1.50000000000000000000e+003) (7, 1.50000000000000000000e+003) (8, 1.50000000000000000000e+003) (9, 1.50000000000000000000e+003) (10, 1.50000000000000000000e+003) (11, 1.50000000000000000000e+003) (12, 1.50000000000000000000e+003) (13, 1.50000000000000000000e+003) (14, 1.50000000000000000000e+003) (15, 1.50000000000000000000e+003) (16, 1.50000000000000000000e+003) (17, 1.50000000000000000000e+003) (18, 1.50000000000000000000e+003) (19, 1.50000000000000000000e+003) (20, 1.50000000000000000000e+003) (0, 1.50000000000000000000e+003) (1, 1.50000000000000000000e+003) (2, 1.50000000000000000000e+003) (3, 1.50000000000000000000e+003) (4, 1.50000000000000000000e+003) (5, 1.50000000000000000000e+003) (6, 1.50000000000000000000e+003) (7, 1.50000000000000000000e+003) (8, 1.50000000000000000000e+003) (9, 1.50000000000000000000e+003) (10, 1.50000000000000000000e+003) (11, 1.50000000000000000000e+003) (12, 1.50000000000000000000e+003) (13, 1.50000000000000000000e+003) (14, 1.50000000000000000000e+003) (15, 1.50000000000000000000e+003) (16, 1.50000000000000000000e+003) (17, 1.50000000000000000000e+003) (18, 1.50000000000000000000e+003) (19, 1.50000000000000000000e+003) (20, 1.50000000000000000000e+003) (0, -1.50000000000000000000e+003) (1, -1.50000000000000000000e+003) (2, -1.50000000000000000000e+003) (3, -1.50000000000000000000e+003) (4, -1.50000000000000000000e+003) (5, -1.50000000000000000000e+003) (6, -1.50000000000000000000e+003) (7, -1.50000000000000000000e+003) (8, -1.50000000000000000000e+003) (9, -1.50000000000000000000e+003) (10, -1.50000000000000000000e+003) (11, -1.50000000000000000000e+003) (12, -1.50000000000000000000e+003) (13, -1.50000000000000000000e+003) (14, -1.50000000000000000000e+003) (15, -1.50000000000000000000e+003) (16, -1.50000000000000000000e+003) (17, -1.50000000000000000000e+003) (18, -1.50000000000000000000e+003) (19, -1.50000000000000000000e+003) (20, -1.50000000000000000000e+003) (0, 1.50000000000000000000e+003) (1, 1.50000000000000000000e+003) (2, 1.50000000000000000000e+003) (3, 1.50000000000000000000e+003) (4, 1.50000000000000000000e+003) (5, 1.50000000000000000000e+003) (6, 1.50000000000000000000e+003) (7, 1.50000000000000000000e+003) (8, 1.50000000000000000000e+003) (9, 1.50000000000000000000e+003) (10, 1.50000000000000000000e+003) (11, 1.50000000000000000000e+003) (12, 1.50000000000000000000e+003) (13, 1.50000000000000000000e+003) (14, 1.50000000000000000000e+003) (15, 1.50000000000000000000e+003) (16, 1.50000000000000000000e+003) (17, 1.50000000000000000000e+003) (18, 1.50000000000000000000e+003) (19, 1.50000000000000000000e+003) (20, 1.50000000000000000000e+003) (0, 1.50000000000000000000e+003) (1, 1.50000000000000000000e+003) (2, 1.50000000000000000000e+003) (3, 1.50000000000000000000e+003) (4, 1.50000000000000000000e+003) (5, 1.50000000000000000000e+003) (6, 1.50000000000000000000e+003) (7, 1.50000000000000000000e+003) (8, 1.50000000000000000000e+003) (9, 1.50000000000000000000e+003) (10, 1.50000000000000000000e+003) (11, 1.50000000000000000000e+003) (12, 1.50000000000000000000e+003) (13, 1.50000000000000000000e+003) (14, 1.50000000000000000000e+003) (15, 1.50000000000000000000e+003) (16, 1.50000000000000000000e+003) (17, 1.50000000000000000000e+003) (18, 1.50000000000000000000e+003) (19, 1.50000000000000000000e+003) (20, 1.50000000000000000000e+003) (0, 1.50000000000000000000e+003) (1, 1.50000000000000000000e+003) (2, 1.50000000000000000000e+003) (3, 1.50000000000000000000e+003) (4, 1.50000000000000000000e+003) (5, 1.50000000000000000000e+003) (6, 1.50000000000000000000e+003) (7, 1.50000000000000000000e+003) (8, 1.50000000000000000000e+003) (9, 1.50000000000000000000e+003) (10, 1.50000000000000000000e+003) (11, 1.50000000000000000000e+003) (12, 1.50000000000000000000e+003) (13, 1.50000000000000000000e+003) (14, 1.50000000000000000000e+003) (15, 1.50000000000000000000e+003) (16, 1.50000000000000000000e+003) (17, 1.50000000000000000000e+003) (18, 1.50000000000000000000e+003) (19, 1.50000000000000000000e+003) (20, 1.50000000000000000000e+003) (0, 1.50000000000000000000e+003) (1, 1.50000000000000000000e+003) (2, 1.50000000000000000000e+003) (3, 1.50000000000000000000e+003) (4, 1.50000000000000000000e+003) (5, 1.50000000000000000000e+003) (6, 1.50000000000000000000e+003) (7, 1.50000000000000000000e+003) (8, 1.50000000000000000000e+003) (9, 1.50000000000000000000e+003) (10, 1.50000000000000000000e+003) (11, 1.50000000000000000000e+003) (12, 1.50000000000000000000e+003) (13, 1.50000000000000000000e+003) (14, 1.50000000000000000000e+003) (15, 1.50000000000000000000e+003) (16, 1.50000000000000000000e+003) (17, 1.50000000000000000000e+003) (18, 1.50000000000000000000e+003) (19, 1.50000000000000000000e+003) (20, 1.50000000000000000000e+003) (0, 1.50000000000000000000e+003) (1, 1.50000000000000000000e+003) (2, 1.50000000000000000000e+003) (3, 1.50000000000000000000e+003) (4, 1.50000000000000000000e+003) (5, 1.50000000000000000000e+003) (6, 1.50000000000000000000e+003) (7, 1.50000000000000000000e+003) (8, 1.50000000000000000000e+003) (9, 1.50000000000000000000e+003) (10, 1.50000000000000000000e+003) (11, 1.50000000000000000000e+003) (12, 1.50000000000000000000e+003) (13, 1.50000000000000000000e+003) (14, 1.50000000000000000000e+003) (15, 1.50000000000000000000e+003) (16, 1.50000000000000000000e+003) (17, 1.50000000000000000000e+003) (18, 1.50000000000000000000e+003) (19, 1.50000000000000000000e+003) (20, 1.50000000000000000000e+003) (0, -1.50000000000000000000e+003) (1, -1.50000000000000000000e+003) (2, -1.50000000000000000000e+003) (3, -1.50000000000000000000e+003) (4, -1.50000000000000000000e+003) (5, -1.50000000000000000000e+003) (6, -1.50000000000000000000e+003) (7, -1.50000000000000000000e+003) (8, -1.50000000000000000000e+003) (9, -1.50000000000000000000e+003) (10, -1.50000000000000000000e+003) (11, -1.50000000000000000000e+003) (12, -1.50000000000000000000e+003) (13, -1.50000000000000000000e+003) (14, -1.50000000000000000000e+003) (15, -1.50000000000000000000e+003) (16, -1.50000000000000000000e+003) (17, -1.50000000000000000000e+003) (18, -1.50000000000000000000e+003) (19, -1.50000000000000000000e+003) (20, -1.50000000000000000000e+003) (0, 1.50000000000000000000e+003) (1, 1.50000000000000000000e+003) (2, 1.50000000000000000000e+003) (3, 1.50000000000000000000e+003) (4, 1.50000000000000000000e+003) (5, 1.50000000000000000000e+003) (6, 1.50000000000000000000e+003) (7, 1.50000000000000000000e+003) (8, 1.50000000000000000000e+003) (9, 1.50000000000000000000e+003) (10, 1.50000000000000000000e+003) (11, 1.50000000000000000000e+003) (12, 1.50000000000000000000e+003) (13, 1.50000000000000000000e+003) (14, 1.50000000000000000000e+003) (15, 1.50000000000000000000e+003) (16, 1.50000000000000000000e+003) (17, 1.50000000000000000000e+003) (18, 1.50000000000000000000e+003) (19, 1.50000000000000000000e+003) (20, 1.50000000000000000000e+003) (0, 1.50000000000000000000e+003) (1, 1.50000000000000000000e+003) (2, 1.50000000000000000000e+003) (3, 1.50000000000000000000e+003) (4, 1.50000000000000000000e+003) (5, 1.50000000000000000000e+003) (6, 1.50000000000000000000e+003) (7, 1.50000000000000000000e+003) (8, 1.50000000000000000000e+003) (9, 1.50000000000000000000e+003) (10, 1.50000000000000000000e+003) (11, 1.50000000000000000000e+003) (12, 1.50000000000000000000e+003) (13, 1.50000000000000000000e+003) (14, 1.50000000000000000000e+003) (15, 1.50000000000000000000e+003) (16, 1.50000000000000000000e+003) (17, 1.50000000000000000000e+003) (18, 1.50000000000000000000e+003) (19, 1.50000000000000000000e+003) (20, 1.50000000000000000000e+003) (0, -1.50000000000000000000e+003) (1, -1.50000000000000000000e+003) (2, -1.50000000000000000000e+003) (3, -1.50000000000000000000e+003) (4, -1.50000000000000000000e+003) (5, -1.50000000000000000000e+003) (6, -1.50000000000000000000e+003) (7, -1.50000000000000000000e+003) (8, -1.50000000000000000000e+003) (9, -1.50000000000000000000e+003) (10, -1.50000000000000000000e+003) (11, -1.50000000000000000000e+003) (12, -1.50000000000000000000e+003) (13, -1.50000000000000000000e+003) (14, -1.50000000000000000000e+003) (15, -1.50000000000000000000e+003) (16, -1.50000000000000000000e+003) (17, -1.50000000000000000000e+003) (18, -1.50000000000000000000e+003) (19, -1.50000000000000000000e+003) (20, -1.50000000000000000000e+003) (0, 1.50000000000000000000e+003) (1, 1.50000000000000000000e+003) (2, 1.50000000000000000000e+003) (3, 1.50000000000000000000e+003) (4, 1.50000000000000000000e+003) (5, 1.50000000000000000000e+003) (6, 1.50000000000000000000e+003) (7, 1.50000000000000000000e+003) (8, 1.50000000000000000000e+003) (9, 1.50000000000000000000e+003) (10, 1.50000000000000000000e+003) (11, 1.50000000000000000000e+003) (12, 1.50000000000000000000e+003) (13, 1.50000000000000000000e+003) (14, 1.50000000000000000000e+003) (15, 1.50000000000000000000e+003) (16, 1.50000000000000000000e+003) (17, 1.50000000000000000000e+003) (18, 1.50000000000000000000e+003) (19, 1.50000000000000000000e+003) (20, 1.50000000000000000000e+003) (0, -1.50000000000000000000e+003) (1, -1.50000000000000000000e+003) (2, -1.50000000000000000000e+003) (3, -1.50000000000000000000e+003) (4, -1.50000000000000000000e+003) (5, -1.50000000000000000000e+003) (6, -1.50000000000000000000e+003) (7, -1.50000000000000000000e+003) (8, -1.50000000000000000000e+003) (9, -1.50000000000000000000e+003) (10, -1.50000000000000000000e+003) (11, -1.50000000000000000000e+003) (12, -1.50000000000000000000e+003) (13, -1.50000000000000000000e+003) (14, -1.50000000000000000000e+003) (15, -1.50000000000000000000e+003) (16, -1.50000000000000000000e+003) (17, -1.50000000000000000000e+003) (18, -1.50000000000000000000e+003) (19, -1.50000000000000000000e+003) (20, -1.50000000000000000000e+003) (0, -1.50000000000000000000e+003) (1, -1.50000000000000000000e+003) (2, -1.50000000000000000000e+003) (3, -1.50000000000000000000e+003) (4, -1.50000000000000000000e+003) (5, -1.50000000000000000000e+003) (6, -1.50000000000000000000e+003) (7, -1.50000000000000000000e+003) (8, -1.50000000000000000000e+003) (9, -1.50000000000000000000e+003) (10, -1.50000000000000000000e+003) (11, -1.50000000000000000000e+003) (12, -1.50000000000000000000e+003) (13, -1.50000000000000000000e+003) (14, -1.50000000000000000000e+003) (15, -1.50000000000000000000e+003) (16, -1.50000000000000000000e+003) (17, -1.50000000000000000000e+003) (18, -1.50000000000000000000e+003) (19, -1.50000000000000000000e+003) (20, -1.50000000000000000000e+003) (0, 1.50000000000000000000e+003) (1, 1.50000000000000000000e+003) (2, 1.50000000000000000000e+003) (3, 1.50000000000000000000e+003) (4, 1.50000000000000000000e+003) (5, 1.50000000000000000000e+003) (6, 1.50000000000000000000e+003) (7, 1.50000000000000000000e+003) (8, 1.50000000000000000000e+003) (9, 1.50000000000000000000e+003) (10, 1.50000000000000000000e+003) (11, 1.50000000000000000000e+003) (12, 1.50000000000000000000e+003) (13, 1.50000000000000000000e+003) (14, 1.50000000000000000000e+003) (15, 1.50000000000000000000e+003) (16, 1.50000000000000000000e+003) (17, 1.50000000000000000000e+003) (18, 1.50000000000000000000e+003) (19, 1.50000000000000000000e+003) (20, 1.50000000000000000000e+003) (0, 1.50000000000000000000e+003) (1, 1.50000000000000000000e+003) (2, 1.50000000000000000000e+003) (3, 1.50000000000000000000e+003) (4, 1.50000000000000000000e+003) (5, 1.50000000000000000000e+003) (6, 1.50000000000000000000e+003) (7, 1.50000000000000000000e+003) (8, 1.50000000000000000000e+003) (9, 1.50000000000000000000e+003) (10, 1.50000000000000000000e+003) (11, 1.50000000000000000000e+003) (12, 1.50000000000000000000e+003) (13, 1.50000000000000000000e+003) (14, 1.50000000000000000000e+003) (15, 1.50000000000000000000e+003) (16, 1.50000000000000000000e+003) (17, 1.50000000000000000000e+003) (18, 1.50000000000000000000e+003) (19, 1.50000000000000000000e+003) (20, 1.50000000000000000000e+003) (0, 1.50000000000000000000e+003) (1, 1.50000000000000000000e+003) (2, 1.50000000000000000000e+003) (3, 1.50000000000000000000e+003) (4, 1.50000000000000000000e+003) (5, 1.50000000000000000000e+003) (6, 1.50000000000000000000e+003) (7, 1.50000000000000000000e+003) (8, 1.50000000000000000000e+003) (9, 1.50000000000000000000e+003) (10, 1.50000000000000000000e+003) (11, 1.50000000000000000000e+003) (12, 1.50000000000000000000e+003) (13, 1.50000000000000000000e+003) (14, 1.50000000000000000000e+003) (15, 1.50000000000000000000e+003) (16, 1.50000000000000000000e+003) (17, 1.50000000000000000000e+003) (18, 1.50000000000000000000e+003) (19, 1.50000000000000000000e+003) (20, 1.50000000000000000000e+003) (0, 1.50000000000000000000e+003) (1, 1.50000000000000000000e+003) (2, 1.50000000000000000000e+003) (3, 1.50000000000000000000e+003) (4, 1.50000000000000000000e+003) (5, 1.50000000000000000000e+003) (6, 1.50000000000000000000e+003) (7, 1.50000000000000000000e+003) (8, 1.50000000000000000000e+003) (9, 1.50000000000000000000e+003) (10, 1.50000000000000000000e+003) (11, 1.50000000000000000000e+003) (12, 1.50000000000000000000e+003) (13, 1.50000000000000000000e+003) (14, 1.50000000000000000000e+003) (15, 1.50000000000000000000e+003) (16, 1.50000000000000000000e+003) (17, 1.50000000000000000000e+003) (18, 1.50000000000000000000e+003) (19, 1.50000000000000000000e+003) (20, 1.50000000000000000000e+003) (0, -1.50000000000000000000e+003) (1, -1.50000000000000000000e+003) (2, -1.50000000000000000000e+003) (3, -1.50000000000000000000e+003) (4, -1.50000000000000000000e+003) (5, -1.50000000000000000000e+003) (6, -1.50000000000000000000e+003) (7, -1.50000000000000000000e+003) (8, -1.50000000000000000000e+003) (9, -1.50000000000000000000e+003) (10, -1.50000000000000000000e+003) (11, -1.50000000000000000000e+003) (12, -1.50000000000000000000e+003) (13, -1.50000000000000000000e+003) (14, -1.50000000000000000000e+003) (15, -1.50000000000000000000e+003) (16, -1.50000000000000000000e+003) (17, -1.50000000000000000000e+003) (18, -1.50000000000000000000e+003) (19, -1.50000000000000000000e+003) (20, -1.50000000000000000000e+003) (0, 1.50000000000000000000e+003) (1, 1.50000000000000000000e+003) (2, 1.50000000000000000000e+003) (3, 1.50000000000000000000e+003) (4, 1.50000000000000000000e+003) (5, 1.50000000000000000000e+003) (6, 1.50000000000000000000e+003) (7, 1.50000000000000000000e+003) (8, 1.50000000000000000000e+003) (9, 1.50000000000000000000e+003) (10, 1.50000000000000000000e+003) (11, 1.50000000000000000000e+003) (12, 1.50000000000000000000e+003) (13, 1.50000000000000000000e+003) (14, 1.50000000000000000000e+003) (15, 1.50000000000000000000e+003) (16, 1.50000000000000000000e+003) (17, 1.50000000000000000000e+003) (18, 1.50000000000000000000e+003) (19, 1.50000000000000000000e+003) (20, 1.50000000000000000000e+003) (0, 1.50000000000000000000e+003) (1, 1.50000000000000000000e+003) (2, 1.50000000000000000000e+003) (3, 1.50000000000000000000e+003) (4, 1.50000000000000000000e+003) (5, 1.50000000000000000000e+003) (6, 1.50000000000000000000e+003) (7, 1.50000000000000000000e+003) (8, 1.50000000000000000000e+003) (9, 1.50000000000000000000e+003) (10, 1.50000000000000000000e+003) (11, 1.50000000000000000000e+003) (12, 1.50000000000000000000e+003) (13, 1.50000000000000000000e+003) (14, 1.50000000000000000000e+003) (15, 1.50000000000000000000e+003) (16, 1.50000000000000000000e+003) (17, 1.50000000000000000000e+003) (18, 1.50000000000000000000e+003) (19, 1.50000000000000000000e+003) (20, 1.50000000000000000000e+003) (0, 1.50000000000000000000e+003) (1, 1.50000000000000000000e+003) (2, 1.50000000000000000000e+003) (3, 1.50000000000000000000e+003) (4, 1.50000000000000000000e+003) (5, 1.50000000000000000000e+003) (6, 1.50000000000000000000e+003) (7, 1.50000000000000000000e+003) (8, 1.50000000000000000000e+003) (9, 1.50000000000000000000e+003) (10, 1.50000000000000000000e+003) (11, 1.50000000000000000000e+003) (12, 1.50000000000000000000e+003) (13, 1.50000000000000000000e+003) (14, 1.50000000000000000000e+003) (15, 1.50000000000000000000e+003) (16, 1.50000000000000000000e+003) (17, 1.50000000000000000000e+003) (18, 1.50000000000000000000e+003) (19, 1.50000000000000000000e+003) (20, 1.50000000000000000000e+003) (0, -1.50000000000000000000e+003) (1, -1.50000000000000000000e+003) (2, -1.50000000000000000000e+003) (3, -1.50000000000000000000e+003) (4, -1.50000000000000000000e+003) (5, -1.50000000000000000000e+003) (6, -1.50000000000000000000e+003) (7, -1.50000000000000000000e+003) (8, -1.50000000000000000000e+003) (9, -1.50000000000000000000e+003) (10, -1.50000000000000000000e+003) (11, -1.50000000000000000000e+003) (12, -1.50000000000000000000e+003) (13, -1.50000000000000000000e+003) (14, -1.50000000000000000000e+003) (15, -1.50000000000000000000e+003) (16, -1.50000000000000000000e+003) (17, -1.50000000000000000000e+003) (18, -1.50000000000000000000e+003) (19, -1.50000000000000000000e+003) (20, -1.50000000000000000000e+003) (0, 1.50000000000000000000e+003) (1, 1.50000000000000000000e+003) (2, 1.50000000000000000000e+003) (3, 1.50000000000000000000e+003) (4, 1.50000000000000000000e+003) (5, 1.50000000000000000000e+003) (6, 1.50000000000000000000e+003) (7, 1.50000000000000000000e+003) (8, 1.50000000000000000000e+003) (9, 1.50000000000000000000e+003) (10, 1.50000000000000000000e+003) (11, 1.50000000000000000000e+003) (12, 1.50000000000000000000e+003) (13, 1.50000000000000000000e+003) (14, 1.50000000000000000000e+003) (15, 1.50000000000000000000e+003) (16, 1.50000000000000000000e+003) (17, 1.50000000000000000000e+003) (18, 1.50000000000000000000e+003) (19, 1.50000000000000000000e+003) (20, 1.50000000000000000000e+003) (0, 1.50000000000000000000e+003) (1, 1.50000000000000000000e+003) (2, 1.50000000000000000000e+003) (3, 1.50000000000000000000e+003) (4, 1.50000000000000000000e+003) (5, 1.50000000000000000000e+003) (6, 1.50000000000000000000e+003) (7, 1.50000000000000000000e+003) (8, 1.50000000000000000000e+003) (9, 1.50000000000000000000e+003) (10, 1.50000000000000000000e+003) (11, 1.50000000000000000000e+003) (12, 1.50000000000000000000e+003) (13, 1.50000000000000000000e+003) (14, 1.50000000000000000000e+003) (15, 1.50000000000000000000e+003) (16, 1.50000000000000000000e+003) (17, 1.50000000000000000000e+003) (18, 1.50000000000000000000e+003) (19, 1.50000000000000000000e+003) (20, 1.50000000000000000000e+003) (0, 1.50000000000000000000e+003) (1, 1.50000000000000000000e+003) (2, 1.50000000000000000000e+003) (3, 1.50000000000000000000e+003) (4, 1.50000000000000000000e+003) (5, 1.50000000000000000000e+003) (6, 1.50000000000000000000e+003) (7, 1.50000000000000000000e+003) (8, 1.50000000000000000000e+003) (9, 1.50000000000000000000e+003) (10, 1.50000000000000000000e+003) (11, 1.50000000000000000000e+003) (12, 1.50000000000000000000e+003) (13, 1.50000000000000000000e+003) (14, 1.50000000000000000000e+003) (15, 1.50000000000000000000e+003) (16, 1.50000000000000000000e+003) (17, 1.50000000000000000000e+003) (18, 1.50000000000000000000e+003) (19, 1.50000000000000000000e+003) (20, 1.50000000000000000000e+003) (0, -1.50000000000000000000e+003) (1, -1.50000000000000000000e+003) (2, -1.50000000000000000000e+003) (3, -1.50000000000000000000e+003) (4, -1.50000000000000000000e+003) (5, -1.50000000000000000000e+003) (6, -1.50000000000000000000e+003) (7, -1.50000000000000000000e+003) (8, -1.50000000000000000000e+003) (9, -1.50000000000000000000e+003) (10, -1.50000000000000000000e+003) (11, -1.50000000000000000000e+003) (12, -1.50000000000000000000e+003) (13, -1.50000000000000000000e+003) (14, -1.50000000000000000000e+003) (15, -1.50000000000000000000e+003) (16, -1.50000000000000000000e+003) (17, -1.50000000000000000000e+003) (18, -1.50000000000000000000e+003) (19, -1.50000000000000000000e+003) (20, -1.50000000000000000000e+003) (0, -1.50000000000000000000e+003) (1, -1.50000000000000000000e+003) (2, -1.50000000000000000000e+003) (3, -1.50000000000000000000e+003) (4, -1.50000000000000000000e+003) (5, -1.50000000000000000000e+003) (6, -1.50000000000000000000e+003) (7, -1.50000000000000000000e+003) (8, -1.50000000000000000000e+003) (9, -1.50000000000000000000e+003) (10, -1.50000000000000000000e+003) (11, -1.50000000000000000000e+003) (12, -1.50000000000000000000e+003) (13, -1.50000000000000000000e+003) (14, -1.50000000000000000000e+003) (15, -1.50000000000000000000e+003) (16, -1.50000000000000000000e+003) (17, -1.50000000000000000000e+003) (18, -1.50000000000000000000e+003) (19, -1.50000000000000000000e+003) (20, -1.50000000000000000000e+003) (0, -1.50000000000000000000e+003) (1, -1.50000000000000000000e+003) (2, -1.50000000000000000000e+003) (3, -1.50000000000000000000e+003) (4, -1.50000000000000000000e+003) (5, -1.50000000000000000000e+003) (6, -1.50000000000000000000e+003) (7, -1.50000000000000000000e+003) (8, -1.50000000000000000000e+003) (9, -1.50000000000000000000e+003) (10, -1.50000000000000000000e+003) (11, -1.50000000000000000000e+003) (12, -1.50000000000000000000e+003) (13, -1.50000000000000000000e+003) (14, -1.50000000000000000000e+003) (15, -1.50000000000000000000e+003) (16, -1.50000000000000000000e+003) (17, -1.50000000000000000000e+003) (18, -1.50000000000000000000e+003) (19, -1.50000000000000000000e+003) (20, -1.50000000000000000000e+003) (21, 1.50000000000000000000e+003) (22, 1.50000000000000000000e+003) (23, 1.50000000000000000000e+003) (24, 1.50000000000000000000e+003) (25, 1.50000000000000000000e+003) (26, 1.50000000000000000000e+003) (27, 1.50000000000000000000e+003) (28, 1.50000000000000000000e+003) (29, -1.50000000000000000000e+003) (30, -1.50000000000000000000e+003) (31, 1.50000000000000000000e+003) (32, 1.50000000000000000000e+003) (33, -1.50000000000000000000e+003) (34, 1.50000000000000000000e+003) (35, 1.50000000000000000000e+003) (36, 1.50000000000000000000e+003) (37, 1.50000000000000000000e+003) (38, 1.50000000000000000000e+003) (39, -1.50000000000000000000e+003) (40, 1.50000000000000000000e+003) (41, 1.50000000000000000000e+003) (42, -1.50000000000000000000e+003) (43, 1.50000000000000000000e+003) (44, -1.50000000000000000000e+003) (45, -1.50000000000000000000e+003) (46, 1.50000000000000000000e+003) (47, 1.50000000000000000000e+003) (48, 1.50000000000000000000e+003) (49, 1.50000000000000000000e+003) (50, -1.50000000000000000000e+003) (51, 1.50000000000000000000e+003) (52, 1.50000000000000000000e+003) (53, 1.50000000000000000000e+003) (54, -1.50000000000000000000e+003) (55, 1.50000000000000000000e+003) (56, 1.50000000000000000000e+003) (57, 1.50000000000000000000e+003) (58, -1.50000000000000000000e+003) (59, -1.50000000000000000000e+003) (60, -1.50000000000000000000e+003) (61, 1.50000000000000000000e+003) 
